net
{
	propagationenginegenerator1791944048146838126L = "edu.ucla.belief.approx.BeliefPropagationSettings@542c20a7";
	recoveryenginegenerator6944530267470113528l = "edu.ucla.util.SettingsImpl@7d7f73b";
	node_size = (130.0 55.0);
	huginenginegenerator3061656038650325130L = "edu.ucla.belief.inference.JoinTreeSettings@66867263";
}

node FutureIncome
{
	states = ("Promising" "Not_promising" );
	position = (319 -302);
	DSLxTYPE = "CPT";
	DSLxPOSITIONxHEIGHT = "30";
	DSLxEXTRA_DEFINITIONxMANDATORY = "false";
	diagnosistype = "AUXILIARY";
	DSLxEXTRA_DEFINITIONxRANKED = "false";
	ismapvariable = "false";
	label = "Future Income";
	DSLxPOSITIONxWIDTH = "90";
	ID = "FutureIncome";
	DSLxEXTRA_DEFINITIONxDIAGNOSIS_TYPE = "AUXILIARY";
	excludepolicy = "include whole CPT";
}
node Age
{
	states = ("Between16and21" "Between22and64" "Over65" );
	position = (157 -123);
	DSLxTYPE = "CPT";
	DSLxPOSITIONxHEIGHT = "30";
	DSLxEXTRA_DEFINITIONxMANDATORY = "false";
	diagnosistype = "AUXILIARY";
	DSLxEXTRA_DEFINITIONxRANKED = "false";
	ismapvariable = "false";
	label = "Age";
	DSLxPOSITIONxWIDTH = "70";
	ID = "Age";
	DSLxEXTRA_DEFINITIONxDIAGNOSIS_TYPE = "AUXILIARY";
	excludepolicy = "include whole CPT";
}
node Income
{
	states = ("High" "Medium" "Low" );
	position = (283 -79);
	DSLxTYPE = "CPT";
	DSLxPOSITIONxHEIGHT = "30";
	DSLxEXTRA_DEFINITIONxMANDATORY = "false";
	diagnosistype = "AUXILIARY";
	DSLxEXTRA_DEFINITIONxRANKED = "false";
	ismapvariable = "false";
	label = "Income";
	DSLxPOSITIONxWIDTH = "83";
	ID = "Profession";
	DSLxEXTRA_DEFINITIONxDIAGNOSIS_TYPE = "AUXILIARY";
	excludepolicy = "include whole CPT";
}
node Reliability
{
	states = ("Reliable" "Unreliable" );
	position = (148 -284);
	DSLxTYPE = "CPT";
	DSLxPOSITIONxHEIGHT = "30";
	DSLxEXTRA_DEFINITIONxMANDATORY = "false";
	diagnosistype = "AUXILIARY";
	DSLxEXTRA_DEFINITIONxRANKED = "false";
	ismapvariable = "false";
	label = "Reliability";
	DSLxPOSITIONxWIDTH = "70";
	ID = "Reliability";
	DSLxEXTRA_DEFINITIONxDIAGNOSIS_TYPE = "AUXILIARY";
	excludepolicy = "include whole CPT";
}
node CreditWorthiness
{
	states = ("Positive" "Negative" );
	position = (158 -390);
	DSLxTYPE = "CPT";
	DSLxPOSITIONxHEIGHT = "30";
	DSLxEXTRA_DEFINITIONxMANDATORY = "false";
	diagnosistype = "AUXILIARY";
	DSLxEXTRA_DEFINITIONxRANKED = "false";
	ismapvariable = "false";
	label = "Credit Worthiness";
	DSLxPOSITIONxWIDTH = "100";
	ID = "CreditWorthiness";
	DSLxEXTRA_DEFINITIONxDIAGNOSIS_TYPE = "AUXILIARY";
	excludepolicy = "include whole CPT";
}
node PaymentHistory
{
	states = ("Excellent" "Acceptable" "Unacceptable" );
	position = (45 -199);
	DSLxTYPE = "CPT";
	DSLxPOSITIONxHEIGHT = "30";
	DSLxEXTRA_DEFINITIONxMANDATORY = "false";
	diagnosistype = "AUXILIARY";
	DSLxEXTRA_DEFINITIONxRANKED = "false";
	ismapvariable = "false";
	label = "Payment History";
	DSLxPOSITIONxWIDTH = "93";
	ID = "PaymentHistory";
	DSLxEXTRA_DEFINITIONxDIAGNOSIS_TYPE = "AUXILIARY";
	excludepolicy = "include whole CPT";
}
node DebtIncomeRatio
{
	states = ("Low" "High" );
	position = (-17 -305);
	DSLxTYPE = "CPT";
	DSLxPOSITIONxHEIGHT = "30";
	DSLxEXTRA_DEFINITIONxMANDATORY = "false";
	diagnosistype = "AUXILIARY";
	DSLxEXTRA_DEFINITIONxRANKED = "false";
	ismapvariable = "false";
	label = "Ratio of Debts To Income";
	DSLxPOSITIONxWIDTH = "81";
	ID = "RatioDebInc";
	DSLxEXTRA_DEFINITIONxDIAGNOSIS_TYPE = "AUXILIARY";
	excludepolicy = "include whole CPT";
}
node Assets
{
	states = ("High" "Medium" "Low" );
	position = (376 -167);
	DSLxTYPE = "CPT";
	DSLxPOSITIONxHEIGHT = "30";
	DSLxEXTRA_DEFINITIONxMANDATORY = "false";
	diagnosistype = "AUXILIARY";
	DSLxEXTRA_DEFINITIONxRANKED = "false";
	ismapvariable = "false";
	label = "Assets";
	DSLxPOSITIONxWIDTH = "70";
	ID = "Worth";
	DSLxEXTRA_DEFINITIONxDIAGNOSIS_TYPE = "AUXILIARY";
	excludepolicy = "include whole CPT";
}
potential ( FutureIncome | Income Assets )
{
	data = (((	0.999	0.001	)
		(	0.95	0.05	)
		(	0.89	0.11	))
		((	0.95	0.05	)
		(	0.9	0.1	)
		(	0.8	0.2	))
		((	0.9	0.1	)
		(	0.5	0.5	)
		(	0.2	0.8	)));
}
potential ( Age | )
{
	data = (	0.25	0.5	0.25	);
}
potential ( Income | )
{
	data = (	0.2	0.5	0.3	);
}
potential ( Reliability | PaymentHistory Age )
{
	data = (((	0.5	0.5	)
		(	0.8	0.2	)
		(	0.99	0.01	))
		((	0.4	0.6	)
		(	0.6	0.4	)
		(	0.8	0.2	))
		((	0.2	0.8	)
		(	0.3	0.7	)
		(	0.4	0.6	)));
}
potential ( CreditWorthiness | DebtIncomeRatio Reliability FutureIncome )
{
	data = ((((	0.999	0.001	)
		(	0.95	0.05	))
		((	0.9	0.1	)
		(	0.3	0.7	)))
		(((	0.8	0.2	)
		(	0.4	0.6	))
		((	0.3	0.7	)
		(	0.01	0.99	))));
}
potential ( PaymentHistory | Age DebtIncomeRatio )
{
	data = (((	0.75	0.12500000000000003	0.12500000000000003	)
		(	0.08333333333333334	0.5	0.4166666666666667	))
		((	0.7834101382488478	0.15207373271889396	0.0645161290322582	)
		(	0.20202020202020204	0.5050505050505051	0.29292929292929293	))
		((	0.9	0.09	0.01	)
		(	0.25	0.5	0.25	)));
}
potential ( DebtIncomeRatio | )
{
	data = (	0.9411764705882353	0.058823529411764705	);
}
potential ( Assets | Income )
{
	data = ((	0.7	0.25	0.05	)
		(	0.1	0.75	0.15	)
		(	9.891196834817015E-4	0.10880316518298715	0.8902077151335311	));
}
